{"learner":{"attributes":{"scikit_learn":"{\"_estimator_type\": \"classifier\"}"},"feature_names":["food_type","temperature","hours_already_spent"],"feature_types":["int","int","float"],"gradient_booster":{"model":{"cats":{"enc":[],"feature_segments":[],"sorted_idx":[]},"gbtree_model_param":{"num_parallel_tree":"1","num_trees":"20"},"iteration_indptr":[0,4,8,12,16,20],"tree_info":[0,1,2,3,0,1,2,3,0,1,2,3,0,1,2,3,0,1,2,3],"trees":[{"base_weights":[2.770377E-1,1.2176554E0,-4.336164E-1,-4.9059862E-1,-1.011131E-1,4.807853E-1,-4.8998857E-1,1.2112455E0,-1.1558207E-1,-6.914972E-1,4.693957E-1,-1.00127906E-1,-4.8809946E-1,1.2038664E0,-4.8543355E-1],"categories":[],"categories_nodes":[],"categories_segments":[],"categories_sizes":[],"default_left":[0,0,0,0,0,0,0,0,0,0,0,0,0,0,0],"id":0,"left_children":[1,-1,3,-1,5,7,-1,-1,9,11,13,-1,-1,-1,-1],"loss_changes":[3.405795E3,0E0,1.9591855E2,0E0,3.4323724E2,3.725443E2,0E0,0E0,1.1459E2,4.4405365E-1,2.4672205E2,0E0,0E0,0E0,0E0],"parents":[2147483647,0,0,2,2,4,4,5,5,8,8,9,9,10,10],"right_children":[2,-1,4,-1,6,8,-1,-1,10,12,14,-1,-1,-1,-1],"split_conditions":[1E0,1.2176554E0,5E0,-4.9059862E-1,2E0,-5.933784E-1,-4.8998857E-1,1.2112455E0,7E0,-5.788986E-1,8E0,-1.00127906E-1,-4.8809946E-1,1.2038664E0,-4.8543355E-1],"split_indices":[1,0,0,0,1,2,0,0,0,2,0,0,0,0,0],"split_type":[0,0,0,0,0,0,0,0,0,0,0,0,0,0,0],"sum_hessian":[3.2752502E3,1.0705974E3,2.2046528E3,1.2216683E3,9.8298444E2,4.9865683E2,4.8432764E2,1.6048726E2,3.381696E2,1.70313E2,1.6785657E2,2.0470314E0,1.6826598E2,8.065304E1,8.720354E1],"tree_param":{"num_deleted":"0","num_feature":"3","num_nodes":"15","size_leaf_vector":"1"}},{"base_weights":[-3.381541E-1,-1.8512706E-1,-4.439279E-1,-4.4365138E-1,3.518091E-2,-4.4328287E-1,3.654141E-1,6.5489674E-1,6.7349985E-2,9.2226815E-1,1.4366578E-1,7.877856E-1,-4.4219044E-1,1.4734894E-1,9.5227814E-1,-4.3809053E-1,9.111306E-1,-6.0929775E-1,1.4642059E0,1.1994195E0,-3.912669E-1,8.4076446E-1,1.0554879E0,-4.3139312E-1,1.6031036E0,-1.3318084E-1,-4.3715733E-1,1.941923E0,3.492078E-2,1.6215484E0,-4.375334E-1,-4.3641403E-1,1.6155733E0,1.6130307E0,1.5652725E0,1.4504397E0,-4.276014E-1,1.5750486E0,9.829695E-1,-4.1201356E-1,1.5489737E0],"categories":[],"categories_nodes":[],"categories_segments":[],"categories_sizes":[],"default_left":[0,0,0,0,0,0,0,0,0,0,0,0,0,0,0,0,0,0,0,0,0,0,0,0,0,0,0,0,0,0,0,0,0,0,0,0,0,0,0,0,0],"id":1,"left_children":[1,3,-1,-1,5,-1,7,9,11,13,15,17,-1,19,21,-1,23,25,27,-1,-1,29,31,-1,-1,-1,-1,33,35,-1,-1,-1,-1,-1,37,-1,-1,-1,39,-1,-1],"loss_changes":[1.21198E2,1.74662E2,0E0,0E0,2.620128E2,0E0,6.850041E1,5.4937668E1,1.9817612E2,6.007263E0,8.297613E1,1.8398471E2,0E0,1.3168281E1,2.0395508E0,0E0,1.4941814E2,2.8859138E-1,8.92659E1,0E0,0E0,2.765022E2,2.7093372E2,0E0,0E0,0E0,0E0,9.775879E0,4.5722507E1,0E0,0E0,0E0,0E0,0E0,1.8202393E1,0E0,0E0,0E0,5.8210087E1,0E0,0E0],"parents":[2147483647,0,0,1,1,4,4,6,6,7,7,8,8,9,9,10,10,11,11,13,13,14,14,16,16,17,17,18,18,21,21,22,22,27,27,28,28,34,34,38,38],"right_children":[2,4,-1,-1,6,-1,8,10,12,14,16,18,-1,20,22,-1,24,26,28,-1,-1,30,32,-1,-1,-1,-1,34,36,-1,-1,-1,-1,-1,38,-1,-1,-1,40,-1,-1],"split_conditions":[5.679032E-1,3E0,-4.439279E-1,-4.4365138E-1,1E0,-4.4328287E-1,2E0,7E0,-5.933784E-1,-1.6533014E0,-5.933784E-1,5E0,-4.4219044E-1,5E0,5E0,-4.3809053E-1,8E0,-1.6967409E0,8E0,1.1994195E0,-3.912669E-1,-5.933784E-1,-5.933784E-1,-4.3139312E-1,1.6031036E0,-1.3318084E-1,-4.3715733E-1,-1.1522995E0,-1.4998152E0,1.6215484E0,-4.375334E-1,-4.3641403E-1,1.6155733E0,1.6130307E0,6E0,1.4504397E0,-4.276014E-1,1.5750486E0,7E0,-4.1201356E-1,1.5489737E0],"split_indices":[2,0,0,0,1,0,1,0,2,2,2,0,0,0,0,0,0,2,0,0,0,2,2,0,0,0,0,2,2,0,0,0,0,0,0,0,0,0,0,0,0],"split_type":[0,0,0,0,0,0,0,0,0,0,0,0,0,0,0,0,0,0,0,0,0,0,0,0,0,0,0,0,0,0,0,0,0,0,0,0,0,0,0,0,0],"sum_hessian":[2.6770215E3,1.7658303E3,9.111912E2,5.809137E2,1.1849166E3,3.915144E2,7.934022E2,4.0188785E2,3.915144E2,2.63352E2,1.3853586E2,1.9274554E2,1.9876884E2,1.0038831E1,2.5331316E2,6.926793E1,6.926793E1,6.2910004E1,1.2983554E2,2.6770215E0,7.3618093E0,1.2615464E2,1.2715852E2,3.312814E1,3.613979E1,2.6770215E0,6.0232983E1,9.704203E1,3.2793514E1,6.257538E1,6.357926E1,5.454431E1,7.261421E1,4.6847878E1,5.0194153E1,7.3618093E0,2.5431704E1,2.17508E1,2.8443354E1,1.2715852E1,1.5727501E1],"tree_param":{"num_deleted":"0","num_feature":"3","num_nodes":"41","size_leaf_vector":"1"}},{"base_weights":[-3.617271E-1,1.0005911E-1,-4.5199096E-1,5.8329254E-1,-4.970966E-1,-4.4274226E-1,-3.6232466E-1,-4.3774024E-1,1.1655854E0,-4.4037998E-1,-6.517578E-2,-4.4242886E-1,-2.3196504E-1,1.4877712E0,7.9557705E-1,-4.290046E-1,9.3732095E-1,-1.3286051E-1,-4.4112825E-1,1.8095572E0,1.0097184E0,1.1813011E0,2.9267296E-1,-3.900153E-1,1.4899698E0,1.2850578E-2,-2.724865E-1,1.5929111E0,1.333978E0,-4.166751E-1,1.5513343E0,1.601379E0,-4.1818437E-1,-4.2532337E-1,1.5195149E0,-3.4751096E-1,3.7254375E-1,8.178298E-2,-6.2543607E-1,1.5061269E0,7.6456213E-1,-4.3901366E-1,-4.793074E-2,8.2479393E-1,-1.4485104E-1,-4.3249416E-1,8.034022E-1,-6.1540067E-2,-4.4117507E-1,-3.9736885E-1,1.4772043E0,-4.34684E-1,5.834468E-1,1.2591739E0,4.2181093E-1,-4.34684E-1,4.2252135E-1,-4.3088055E-1,1.5394417E0,1.4931912E0,-7.842473E-2,1.6113337E0,-4.1994968E-1,-4.3132967E-1,1.5817118E0,8.9175415E-1,-4.1233453E-1,1.6123542E0,7.750738E-1,4.4822404E-1,-4.2111924E-1,-3.6858854E-1,1.5559787E0,-4.1994968E-1,1.5662057E0],"categories":[],"categories_nodes":[],"categories_segments":[],"categories_sizes":[],"default_left":[0,0,0,0,0,0,0,0,0,0,0,0,0,0,0,0,0,0,0,0,0,0,0,0,0,0,0,0,0,0,0,0,0,0,0,0,0,0,0,0,0,0,0,0,0,0,0,0,0,0,0,0,0,0,0,0,0,0,0,0,0,0,0,0,0,0,0,0,0,0,0,0,0,0,0],"id":2,"left_children":[1,3,5,7,9,-1,11,-1,13,-1,15,-1,17,19,21,-1,23,25,-1,27,29,31,33,-1,-1,35,37,-1,39,-1,-1,-1,-1,-1,-1,41,43,45,47,-1,49,-1,51,53,55,-1,57,-1,-1,-1,-1,-1,59,61,63,-1,65,-1,67,-1,69,-1,-1,-1,-1,71,-1,-1,73,-1,-1,-1,-1,-1,-1],"loss_changes":[1.109397E2,1.26052574E2,3.5791687E1,1.7058453E2,1.1105053E1,0E0,5.2217194E1,0E0,1.827481E1,0E0,2.631169E1,0E0,3.9602753E1,1.1418045E1,1.4808933E1,0E0,3.1372967E1,1.641139E1,0E0,8.090393E0,7.277551E1,8.7726654E1,6.0902645E1,0E0,0E0,5.1406414E1,5.1552925E1,0E0,1.1047424E1,0E0,0E0,0E0,0E0,0E0,0E0,1.656902E1,4.6558453E1,1.0472249E2,4.7879028E-1,0E0,3.27903E1,0E0,3.5363728E1,1.8032372E1,2.5497807E1,0E0,1.07538086E2,0E0,0E0,0E0,0E0,0E0,4.79061E1,9.933996E1,1.0920256E2,0E0,2.103959E1,0E0,3.7621063E1,0E0,1.30116005E1,0E0,0E0,0E0,0E0,5.7658417E1,0E0,0E0,7.2201996E1,0E0,0E0,0E0,0E0,0E0,0E0],"parents":[2147483647,0,0,1,1,2,2,3,3,4,4,6,6,8,8,10,10,12,12,13,13,14,14,16,16,17,17,19,19,20,20,21,21,22,22,25,25,26,26,28,28,35,35,36,36,37,37,38,38,40,40,42,42,43,43,44,44,46,46,52,52,53,53,54,54,56,56,58,58,60,60,65,65,68,68],"right_children":[2,4,6,8,10,-1,12,-1,14,-1,16,-1,18,20,22,-1,24,26,-1,28,30,32,34,-1,-1,36,38,-1,40,-1,-1,-1,-1,-1,-1,42,44,46,48,-1,50,-1,52,54,56,-1,58,-1,-1,-1,-1,-1,60,62,64,-1,66,-1,68,-1,70,-1,-1,-1,-1,72,-1,-1,74,-1,-1,-1,-1,-1,-1],"split_conditions":[-1.1725713E0,5E0,3E0,1E0,8E0,-4.4274226E-1,1E0,-4.3774024E-1,-1.4534799E0,-4.4037998E-1,2E0,-4.4242886E-1,1.147096E0,3E0,2E0,-4.290046E-1,-1.4998152E0,-2.8665412E-2,-4.4112825E-1,2E0,2E0,3E0,3E0,-3.900153E-1,1.4899698E0,-5.933784E-1,2E0,1.5929111E0,1E0,-4.166751E-1,1.5513343E0,1.601379E0,-4.1818437E-1,-4.2532337E-1,1.5195149E0,6E0,6E0,5.679032E-1,-1.4185592E-2,1.5061269E0,2E0,-4.3901366E-1,2E0,2E0,2E0,-4.3249416E-1,5E0,-6.1540067E-2,-4.4117507E-1,-3.9736885E-1,1.4772043E0,-4.34684E-1,7E0,5E0,5E0,-4.34684E-1,8E0,-4.3088055E-1,7E0,1.4931912E0,-8.7428695E-1,1.6113337E0,-4.1994968E-1,-4.3132967E-1,1.5817118E0,7E0,-4.1233453E-1,1.6123542E0,8E0,4.4822404E-1,-4.2111924E-1,-3.6858854E-1,1.5559787E0,-4.1994968E-1,1.5662057E0],"split_indices":[2,0,0,1,0,0,1,0,2,0,1,0,2,0,1,0,2,2,0,1,1,0,0,0,0,2,1,0,0,0,0,0,0,0,0,0,0,2,2,0,0,0,1,1,1,0,0,0,0,0,0,0,0,0,0,0,0,0,0,0,2,0,0,0,0,0,0,0,0,0,0,0,0,0,0],"split_type":[0,0,0,0,0,0,0,0,0,0,0,0,0,0,0,0,0,0,0,0,0,0,0,0,0,0,0,0,0,0,0,0,0,0,0,0,0,0,0,0,0,0,0,0,0,0,0,0,0,0,0,0,0,0,0,0,0,0,0,0,0,0,0,0,0,0,0,0,0,0,0,0,0,0,0],"sum_hessian":[2.6594487E3,4.3481985E2,2.2246287E3,2.4034767E2,1.9447218E2,7.3633484E2,1.488294E3,7.81213E1,1.6222636E2,1.485967E2,4.587549E1,4.8368723E2,1.0046067E3,8.5102356E1,7.712401E1,2.9918797E1,1.5956692E1,8.054805E2,1.9912622E2,4.91998E1,3.5902557E1,4.288361E1,3.4240402E1,7.3134837E0,8.643208E0,3.945957E2,4.1088483E2,2.2937744E1,2.6262054E1,1.5624261E1,2.0278296E1,2.6262054E1,1.6621553E1,2.3602606E1,1.06377945E1,1.9713162E2,1.9746407E2,2.0544241E2,2.0544241E2,9.640501E0,1.6621553E1,1.0139148E2,9.574015E1,1.0504822E2,9.241584E1,1.0438336E2,1.0105905E2,1.9945865E0,2.0344781E2,8.643208E0,7.978346E0,5.0197094E1,4.5543056E1,4.953223E1,5.551599E1,5.0197094E1,4.2218746E1,3.457283E1,6.648621E1,1.2964812E1,3.2578247E1,3.1580952E1,1.7951279E1,3.5902557E1,1.9613434E1,2.8921503E1,1.3297243E1,3.2245815E1,3.4240402E1,1.3629674E1,1.8948572E1,1.4294537E1,1.4626967E1,1.7951279E1,1.6289124E1],"tree_param":{"num_deleted":"0","num_feature":"3","num_nodes":"75","size_leaf_vector":"1"}},{"base_weights":[2.9150116E-1,-4.9238792E-1,7.7473813E-1,2.2082973E-1,1.3232439E0,1.1769747E0,-2.6006484E-1,1.2056133E0,8.2657814E-1,8.593643E-2,1.2026854E0,-6.995081E-1,1.9355616E-1,-6.834579E-2,1.2027338E0,-4.8488677E-1,8.529824E-1,-4.915143E-1,-3.418812E-1,-4.463854E-1,7.7574235E-1,-4.8988512E-1,1.1817646E0,9.2561446E-2,1.1676223E0,4.0868197E-2,-3.508143E-1,7.4779436E-2,-4.8863617E-1,1.1898389E0,2.5894058E-1,1.1794811E0,6.4070445E-1,-4.5475322E-1,5.331971E-1,-4.8029986E-1,1.144391E0,-2.0521966E-1,1.168159E0,-4.6705976E-1,1.1573666E0,1.1043885E0,-4.4754678E-1,-6.592796E-1,1.0378969E-1,-4.793068E-1,-4.214623E-2,9.3066293E-1,-6.476913E-1,-3.6916962E-1,1.1430002E0,-4.7584668E-1,4.0868197E-2],"categories":[],"categories_nodes":[],"categories_segments":[],"categories_sizes":[],"default_left":[0,0,0,0,0,0,0,0,0,0,0,0,0,0,0,0,0,0,0,0,0,0,0,0,0,0,0,0,0,0,0,0,0,0,0,0,0,0,0,0,0,0,0,0,0,0,0,0,0,0,0,0,0],"id":3,"left_children":[1,-1,3,5,7,9,11,-1,13,15,-1,17,19,21,-1,-1,23,-1,25,27,29,-1,31,33,-1,-1,-1,35,-1,-1,37,-1,39,-1,41,-1,-1,43,-1,-1,-1,-1,-1,45,47,-1,-1,49,51,-1,-1,-1,-1],"loss_changes":[1.5843789E3,0E0,6.735272E2,5.082392E2,2.1939856E2,2.1821686E2,1.4681424E2,0E0,3.9771585E2,7.44558E1,0E0,1.1505127E-1,1.355325E2,1.9790489E2,0E0,0E0,3.873659E1,0E0,3.2922488E-1,2.280671E1,9.046678E1,0E0,2.1833275E1,1.130937E1,0E0,0E0,0E0,6.9258156E1,0E0,0E0,8.100655E1,0E0,5.695311E1,0E0,2.744227E1,0E0,0E0,1.3204744E1,0E0,0E0,0E0,0E0,0E0,5.3876686E-1,3.5757095E1,0E0,0E0,2.8859398E1,7.245865E-1,0E0,0E0,0E0,0E0],"parents":[2147483647,0,0,2,2,3,3,4,4,5,5,6,6,8,8,9,9,11,11,12,12,13,13,16,16,18,18,19,19,20,20,22,22,23,23,27,27,30,30,32,32,34,34,37,37,43,43,44,44,47,47,48,48],"right_children":[2,-1,4,6,8,10,12,-1,14,16,-1,18,20,22,-1,-1,24,-1,26,28,30,-1,32,34,-1,-1,-1,36,-1,-1,38,-1,40,-1,42,-1,-1,44,-1,-1,-1,-1,-1,46,48,-1,-1,50,52,-1,-1,-1,-1],"split_conditions":[1E0,-4.9238792E-1,2.9422998E-4,3E0,5E0,-1.1725713E0,2E0,1.2056133E0,2E0,2E0,1.2026854E0,-1.4185592E-2,-8.7428695E-1,1.147096E0,1.2027338E0,-4.8488677E-1,-1.4534799E0,-4.915143E-1,6E0,5E0,5E0,-4.8988512E-1,7E0,1E0,1.1676223E0,4.0868197E-2,-3.508143E-1,-1.1725713E0,-4.8863617E-1,1.1898389E0,8E0,1.1794811E0,8E0,-4.5475322E-1,2E0,-4.8029986E-1,1.144391E0,6E0,1.168159E0,-4.6705976E-1,1.1573666E0,1.1043885E0,-4.4754678E-1,-6.341698E-2,7E0,-4.793068E-1,-4.214623E-2,-5.788986E-1,-5.4729093E-2,-3.6916962E-1,1.1430002E0,-4.7584668E-1,4.0868197E-2],"split_indices":[1,0,2,0,0,2,1,0,1,1,0,2,2,2,0,0,2,0,0,0,0,0,0,0,0,0,0,2,0,0,0,0,0,0,0,0,0,0,0,0,0,0,0,2,0,0,0,2,2,0,0,0,0],"split_type":[0,0,0,0,0,0,0,0,0,0,0,0,0,0,0,0,0,0,0,0,0,0,0,0,0,0,0,0,0,0,0,0,0,0,0,0,0,0,0,0,0,0,0,0,0,0,0,0,0,0,0,0,0],"sum_hessian":[3.293311E3,1.0765011E3,2.21681E3,1.1036709E3,1.1131392E3,3.6885083E2,7.3482007E2,6.158492E2,4.9728998E2,1.2267584E2,2.46175E2,3.729675E2,3.6185257E2,2.4864499E2,2.4864499E2,6.0926254E1,6.1749584E1,3.692625E2,3.7049751E0,1.7248717E2,1.8936539E2,1.6548888E2,8.3156105E1,3.2521446E1,2.9228136E1,1.2349917E0,2.4699833E0,5.6397953E1,1.1608922E2,6.710121E1,1.22264175E2,4.1989716E1,4.116639E1,1.1938252E1,2.0583195E1,3.828474E1,1.811321E1,9.2624374E1,2.9639801E1,1.811321E1,2.3053177E1,1.0703261E1,9.879933E0,3.704975E1,5.5574627E1,3.5403095E1,1.6466556E0,2.6346489E1,2.9228136E1,8.644941E0,1.7701548E1,2.7993145E1,1.2349917E0],"tree_param":{"num_deleted":"0","num_feature":"3","num_nodes":"53","size_leaf_vector":"1"}},{"base_weights":[1.7744513E-1,5.1142985E-1,-3.0927473E-1,-3.9854816E-1,-4.829893E-2,2.9681244E-1,-3.9859703E-1,5.1066625E-1,-4.5147605E-2,-5.486219E-1,2.882116E-1,6.286185E-2,-3.9171436E-1,5.0957364E-1,-3.8869897E-1],"categories":[],"categories_nodes":[],"categories_segments":[],"categories_sizes":[],"default_left":[0,0,0,0,0,0,0,0,0,0,0,0,0,0,0],"id":4,"left_children":[1,-1,3,-1,5,7,-1,-1,9,11,13,-1,-1,-1,-1],"loss_changes":[6.5116895E2,0E0,8.731408E1,0E0,1.15880486E2,5.7403698E1,0E0,0E0,3.6664783E1,6.5950584E-1,4.9188557E1,0E0,0E0,0E0,0E0],"parents":[2147483647,0,0,2,2,4,4,5,5,8,8,9,9,10,10],"right_children":[2,-1,4,-1,6,8,-1,-1,10,12,14,-1,-1,-1,-1],"split_conditions":[1E0,5.1142985E-1,5E0,-3.9854816E-1,2E0,-5.933784E-1,-3.9859703E-1,5.1066625E-1,7E0,-5.788986E-1,8E0,6.286185E-2,-3.9171436E-1,5.0957364E-1,-3.8869897E-1],"split_indices":[1,0,0,0,1,2,0,0,0,2,0,0,0,0,0],"split_type":[0,0,0,0,0,0,0,0,0,0,0,0,0,0,0],"sum_hessian":[2.4167205E3,1.1309113E3,1.2858092E3,6.434183E2,6.423909E2,3.8671936E2,2.5567154E2,1.7020778E2,2.1651158E2,8.599186E1,1.3051971E2,1.3312461E0,8.4660614E1,8.588247E1,4.4637253E1],"tree_param":{"num_deleted":"0","num_feature":"3","num_nodes":"15","size_leaf_vector":"1"}},{"base_weights":[-2.7430817E-1,-1.5750171E-1,-3.8636273E-1,-3.8591716E-1,-1.3509246E-2,-3.8519546E-1,1.6208695E-1,2.8478307E-1,1.0891854E-2,3.8356033E-1,4.4670947E-2,3.426005E-1,-3.8418806E-1,1.1986315E-1,3.918486E-1,-3.7713763E-1,3.7664327E-1,-5.085715E-1,5.419128E-1,4.7229567E-1,-3.114854E-1,2.784236E-1,3.9861184E-1,-3.6700085E-1,5.020491E-1,7.881204E-3,-3.75411E-1,6.66642E-1,-3.6881767E-2,4.6513653E-1,-3.2570758E-1,3.2158518E-1,4.626447E-1,6.0924536E-1,5.213854E-1,4.9272645E-1,-3.7467197E-1,5.023452E-1,-3.7499455E-1,-3.716825E-1,7.126945E-1,5.036212E-1,4.0865085E-1,1.5984455E-1,5.054919E-1,4.93165E-1,-3.3738384E-1],"categories":[],"categories_nodes":[],"categories_segments":[],"categories_sizes":[],"default_left":[0,0,0,0,0,0,0,0,0,0,0,0,0,0,0,0,0,0,0,0,0,0,0,0,0,0,0,0,0,0,0,0,0,0,0,0,0,0,0,0,0,0,0,0,0,0,0],"id":5,"left_children":[1,3,-1,-1,5,-1,7,9,11,13,15,17,-1,19,21,-1,23,25,27,-1,-1,29,31,-1,-1,-1,-1,33,35,-1,-1,37,39,41,-1,-1,-1,-1,-1,-1,43,-1,45,-1,-1,-1,-1],"loss_changes":[5.182113E1,6.3958E1,0E0,0E0,7.804098E1,0E0,1.1571716E1,8.151064E0,5.227725E1,4.8605347E-1,1.9864614E1,3.0264824E1,0E0,3.080875E0,7.006073E-2,0E0,2.0408413E1,4.9694347E-1,1.0399872E1,0E0,0E0,5.074557E0,9.3833923E-1,0E0,0E0,0E0,0E0,7.7106476E-2,1.0133131E1,0E0,0E0,3.546933E1,2.9715204E1,1.3355827E0,0E0,0E0,0E0,0E0,0E0,0E0,2.6822662E-1,0E0,7.837105E0,0E0,0E0,0E0,0E0],"parents":[2147483647,0,0,1,1,4,4,6,6,7,7,8,8,9,9,10,10,11,11,13,13,14,14,16,16,17,17,18,18,21,21,22,22,27,27,28,28,31,31,32,32,33,33,40,40,42,42],"right_children":[2,4,-1,-1,6,-1,8,10,12,14,16,18,-1,20,22,-1,24,26,28,-1,-1,30,32,-1,-1,-1,-1,34,36,-1,-1,38,40,42,-1,-1,-1,-1,-1,-1,44,-1,46,-1,-1,-1,-1],"split_conditions":[5.679032E-1,1E0,-3.8636273E-1,-3.8591716E-1,3E0,-3.8519546E-1,2E0,7E0,-5.933784E-1,-1.6533014E0,-5.933784E-1,5E0,-3.8418806E-1,5E0,-1.5142951E0,-3.7713763E-1,8E0,-1.6967409E0,8E0,4.7229567E-1,-3.114854E-1,5E0,5E0,-3.6700085E-1,5.020491E-1,7.881204E-3,-3.75411E-1,7E0,-1.4998152E0,4.6513653E-1,-3.2570758E-1,-5.933784E-1,-5.933784E-1,6E0,5.213854E-1,4.9272645E-1,-3.7467197E-1,5.023452E-1,-3.7499455E-1,-3.716825E-1,-5.788986E-1,5.036212E-1,-1.1522995E0,1.5984455E-1,5.054919E-1,4.93165E-1,-3.3738384E-1],"split_indices":[2,1,0,0,0,0,1,0,2,2,2,0,0,0,2,0,0,2,0,0,0,0,0,0,0,0,0,0,2,0,0,2,2,0,0,0,0,0,0,0,2,0,2,0,0,0,0],"split_type":[0,0,0,0,0,0,0,0,0,0,0,0,0,0,0,0,0,0,0,0,0,0,0,0,0,0,0,0,0,0,0,0,0,0,0,0,0,0,0,0,0,0,0,0,0,0,0],"sum_hessian":[1.5996198E3,1.1270298E3,4.7258997E2,3.0099698E2,8.260328E2,2.0308871E2,6.229441E2,3.4339365E2,2.7955045E2,2.4288022E2,1.00513435E2,1.7577216E2,1.0377827E2,7.8725095E0,2.350077E2,3.6225117E1,6.428832E1,3.3055508E1,1.4271666E2,3.8732784E0,3.999231E0,1.5597248E1,2.1941046E2,1.7487669E1,4.680065E1,1.7041006E0,3.1351408E1,1.17289246E2,2.5427408E1,1.0337637E1,5.2596116E0,1.0233337E2,1.17077095E2,7.2709785E1,4.4579456E1,1.0060659E1,1.5366749E1,7.0107895E1,3.2225475E1,2.3313416E1,9.376368E1,4.525726E1,2.745253E1,2.2734964E0,9.149019E1,2.0763697E1,6.688833E0],"tree_param":{"num_deleted":"0","num_feature":"3","num_nodes":"47","size_leaf_vector":"1"}},{"base_weights":[-2.876052E-1,-3.8604596E-1,-1.8142585E-1,2.2640096E-1,-2.8918284E-1,4.699727E-1,-3.303893E-1,-3.8552266E-1,-1.8145661E-1,5.548027E-1,3.4882504E-1,-3.7753674E-1,1.0117027E-1,-1.0808803E-1,-3.8364893E-1,6.290281E-1,4.1587067E-1,4.7968683E-1,1.3393196E-1,-3.4715012E-1,4.436837E-1,-6.6787004E-3,-2.1879202E-1,4.9925035E-1,5.205948E-1,-3.4322742E-1,4.8222762E-1,4.998887E-1,-3.415929E-1,-3.6042175E-1,4.945741E-1,-2.978975E-1,4.9252394E-1,-2.3776199E-1,1.7410935E-1,2.3793284E-2,-5.397E-1,4.9501988E-1,3.341363E-1,-3.7831184E-1,-1.1971986E-2,2.5392282E-1,-3.6287016E-1,-5.223945E-1,3.407118E-1,1.9575633E-2,-3.837158E-1,-3.2589418E-1,4.935763E-1,-3.7312302E-1,3.071131E-1,3.5582605E-1,3.4640614E-2,-2.000541E-1,-3.778672E-1,-3.671924E-1,5.5960405E-1,6.8803304E-1,2.9052785E-2,4.986972E-1,1.8996231E-1,-3.6377865E-1,3.718338E-1,3.222443E-2,-2.4679929E-1,5.005642E-1,3.341287E-1,8.608757E-2,5.0813216E-1,-3.8338718E-1,3.4498307E-1,5.00534E-1,-3.4443182E-1,-3.684744E-1,5.006554E-1,-2.8092483E-1,4.9823362E-1,-3.513479E-1,4.9727276E-1],"categories":[],"categories_nodes":[],"categories_segments":[],"categories_sizes":[],"default_left":[0,0,0,0,0,0,0,0,0,0,0,0,0,0,0,0,0,0,0,0,0,0,0,0,0,0,0,0,0,0,0,0,0,0,0,0,0,0,0,0,0,0,0,0,0,0,0,0,0,0,0,0,0,0,0,0,0,0,0,0,0,0,0,0,0,0,0,0,0,0,0,0,0,0,0,0,0,0,0],"id":6,"left_children":[1,-1,3,5,7,9,11,-1,13,15,17,-1,19,21,-1,23,25,27,29,-1,31,33,35,-1,37,-1,-1,-1,-1,-1,-1,-1,-1,39,41,43,45,-1,47,-1,49,51,-1,53,55,-1,-1,-1,-1,-1,57,59,61,63,-1,-1,65,67,69,71,73,-1,75,-1,-1,-1,77,-1,-1,-1,-1,-1,-1,-1,-1,-1,-1,-1,-1],"loss_changes":[4.411258E1,0E0,4.9578575E1,3.2166103E1,2.5024055E1,1.4982262E0,6.584901E0,0E0,1.6967924E1,7.1938705E-1,1.9180088E0,0E0,5.2238784E0,5.9341164E0,0E0,1.7688942E-1,9.263552E0,1.0199542E1,1.0790864E1,0E0,3.9315817E0,1.1612525E1,1.9688194E1,0E0,8.055887E-1,0E0,0E0,0E0,0E0,0E0,0E0,0E0,0E0,8.331236E0,8.752433E0,2.5258661E1,5.3840446E-1,0E0,5.3344765E0,0E0,1.1951258E1,3.1278305E0,0E0,1.9289494E-1,1.7774614E1,0E0,0E0,0E0,0E0,0E0,4.704522E0,2.1762552E0,8.7339525E0,1.7897938E-1,0E0,0E0,2.3605118E0,3.1253147E-1,7.445947E0,1.1255788E1,1.7671337E1,0E0,7.905738E0,0E0,0E0,0E0,1.04667225E1,0E0,0E0,0E0,0E0,0E0,0E0,0E0,0E0,0E0,0E0,0E0,0E0],"parents":[2147483647,0,0,2,2,3,3,4,4,5,5,6,6,8,8,9,9,10,10,12,12,13,13,15,15,16,16,17,17,18,18,20,20,21,21,22,22,24,24,33,33,34,34,35,35,36,36,38,38,40,40,41,41,43,43,44,44,50,50,51,51,52,52,53,53,56,56,57,57,58,58,59,59,60,60,62,62,66,66],"right_children":[2,-1,4,6,8,10,12,-1,14,16,18,-1,20,22,-1,24,26,28,30,-1,32,34,36,-1,38,-1,-1,-1,-1,-1,-1,-1,-1,40,42,44,46,-1,48,-1,50,52,-1,54,56,-1,-1,-1,-1,-1,58,60,62,64,-1,-1,66,68,70,72,74,-1,76,-1,-1,-1,78,-1,-1,-1,-1,-1,-1,-1,-1,-1,-1,-1,-1],"split_conditions":[1E0,-3.8604596E-1,-1.1725713E0,5E0,3E0,-1.4534799E0,8E0,-3.8552266E-1,1.147096E0,3E0,2E0,-3.7753674E-1,-1.4245201E0,-2.8665412E-2,-3.8364893E-1,2E0,2E0,3E0,3E0,-3.4715012E-1,2E0,-5.933784E-1,2E0,4.9925035E-1,1E0,-3.4322742E-1,4.8222762E-1,4.998887E-1,-3.415929E-1,-3.6042175E-1,4.945741E-1,-2.978975E-1,4.9252394E-1,6E0,8E0,5.679032E-1,-1.4185592E-2,4.9501988E-1,2E0,-3.7831184E-1,2E0,6E0,-3.6287016E-1,2.9422998E-4,5E0,1.9575633E-2,-3.837158E-1,-3.2589418E-1,4.935763E-1,-3.7312302E-1,7E0,2E0,2E0,6E0,-3.778672E-1,-3.671924E-1,7E0,-1.117548E0,8E0,5E0,5E0,-3.6377865E-1,7E0,3.222443E-2,-2.4679929E-1,5.005642E-1,8E0,8.608757E-2,5.0813216E-1,-3.8338718E-1,3.4498307E-1,5.00534E-1,-3.4443182E-1,-3.684744E-1,5.006554E-1,-2.8092483E-1,4.9823362E-1,-3.513479E-1,4.9727276E-1],"split_indices":[1,0,2,0,0,2,0,0,2,0,1,0,2,2,0,1,1,0,0,0,1,2,1,0,0,0,0,0,0,0,0,0,0,0,0,2,2,0,0,0,1,0,0,2,0,0,0,0,0,0,0,1,1,0,0,0,0,2,0,0,0,0,0,0,0,0,0,0,0,0,0,0,0,0,0,0,0,0,0],"split_type":[0,0,0,0,0,0,0,0,0,0,0,0,0,0,0,0,0,0,0,0,0,0,0,0,0,0,0,0,0,0,0,0,0,0,0,0,0,0,0,0,0,0,0,0,0,0,0,0,0,0,0,0,0,0,0,0,0,0,0,0,0,0,0,0,0,0,0,0,0,0,0,0,0,0,0,0,0,0,0],"sum_hessian":[1.5769194E3,4.512435E2,1.1256759E3,2.3503609E2,8.9063983E2,1.6361674E2,7.141935E1,2.5861038E2,6.320295E2,9.412734E1,6.94894E1,4.7952404E1,2.3466942E1,5.2771515E2,1.0431432E2,5.9051224E1,3.507612E1,4.242311E1,2.706629E1,8.391043E0,1.50759E1,2.7597302E2,2.5174211E2,3.0102465E1,2.894876E1,7.9369245E0,2.7139194E1,3.4360565E1,8.062545E0,1.2735919E1,1.4330372E1,3.3235912E0,1.1752309E1,1.2099811E2,1.5497491E2,1.4389375E2,1.0784836E2,1.3073916E1,1.5874842E1,5.1100964E1,6.989715E1,1.3952707E2,1.544785E1,5.2597366E1,9.129639E1,1.5508361E0,1.0629752E2,4.949757E0,1.0925085E1,2.6292084E1,4.360506E1,9.483387E1,4.4693195E1,3.3362012E0,4.9261166E1,1.8150755E1,7.314564E1,1.7777262E1,2.5827799E1,4.987019E1,4.496368E1,1.6699335E1,2.799386E1,1.5436485E0,1.7925527E0,4.2006493E1,3.1139143E1,1.3833945E0,1.6393867E1,1.14312105E1,1.4396589E1,4.1160187E1,8.710003E0,1.902079E1,2.5942892E1,8.493989E0,1.9499872E1,9.560863E0,2.157828E1],"tree_param":{"num_deleted":"0","num_feature":"3","num_nodes":"79","size_leaf_vector":"1"}},{"base_weights":[1.9001153E-1,-3.9921483E-1,4.2259908E-1,-2.9342896E-1,5.114039E-1,9.181864E-2,-3.948015E-1,6.82155E-1,2.2839567E-1,-3.8360956E-1,4.5146456E-1,5.988472E-1,5.106511E-1,-2.0808691E-1,5.2134854E-1,8.37377E-2,5.028366E-1,5.1026136E-1,3.3765143E-1,-3.9535424E-1,5.683703E-1,2.9217957E-2,5.1183057E-1,-3.471368E-1,3.1688917E-1,-3.8517928E-1,5.1088244E-1,5.0498354E-1,3.562031E-1,-2.1569437E-1,5.0611186E-1,4.8968112E-1,-3.4008217E-1,-3.6480317E-1,4.9994084E-1,-3.8576195E-1,4.479345E-2,-3.837467E-1,5.038859E-1,-3.6932117E-1,2.9389596E-1,4.9408352E-1,-3.693174E-1],"categories":[],"categories_nodes":[],"categories_segments":[],"categories_sizes":[],"default_left":[0,0,0,0,0,0,0,0,0,0,0,0,0,0,0,0,0,0,0,0,0,0,0,0,0,0,0,0,0,0,0,0,0,0,0,0,0,0,0,0,0,0,0],"id":7,"left_children":[1,-1,3,5,7,9,-1,11,13,-1,15,17,-1,19,21,23,-1,-1,25,-1,27,29,-1,-1,31,-1,-1,-1,33,35,37,-1,-1,-1,-1,-1,39,-1,-1,-1,41,-1,-1],"loss_changes":[4.319555E2,0E0,1.1905557E2,2.1625568E1,8.025552E1,2.0094398E1,0E0,3.6547546E0,8.036844E1,0E0,5.4121294E0,1.2717346E1,0E0,7.033766E1,3.879445E1,3.4792912E0,0E0,0E0,4.5218197E1,0E0,2.3430252E0,1.3354122E1,0E0,0E0,5.912068E0,0E0,0E0,0E0,1.1532007E1,6.6317363E0,9.132311E0,0E0,0E0,0E0,0E0,0E0,6.356162E0,0E0,0E0,0E0,1.084435E1,0E0,0E0],"parents":[2147483647,0,0,2,2,3,3,4,4,5,5,7,7,8,8,10,10,11,11,13,13,14,14,15,15,18,18,20,20,21,21,24,24,28,28,29,29,30,30,36,36,40,40],"right_children":[2,-1,4,6,8,10,-1,12,14,-1,16,18,-1,20,22,24,-1,-1,26,-1,28,30,-1,-1,32,-1,-1,-1,34,36,38,-1,-1,-1,-1,-1,40,-1,-1,-1,42,-1,-1],"split_conditions":[1E0,-3.9921483E-1,-1.1725713E0,3E0,5E0,2E0,-3.948015E-1,-2.8665412E-2,2E0,-3.8360956E-1,-1.4534799E0,3E0,5.106511E-1,1.147096E0,-1.4185592E-2,1E0,5.028366E-1,5.1026136E-1,2E0,-3.9535424E-1,7E0,8E0,5.1183057E-1,-3.471368E-1,2E0,-3.8517928E-1,5.1088244E-1,5.0498354E-1,8E0,-5.933784E-1,-8.7428695E-1,4.8968112E-1,-3.4008217E-1,-3.6480317E-1,4.9994084E-1,-3.8576195E-1,6E0,-3.837467E-1,5.038859E-1,-3.6932117E-1,7E0,4.9408352E-1,-3.693174E-1],"split_indices":[1,0,2,0,0,1,0,2,1,0,2,0,0,2,2,0,0,0,1,0,0,0,0,0,0,0,0,0,0,2,2,0,0,0,0,0,0,0,0,0,0,0,0],"split_type":[0,0,0,0,0,0,0,0,0,0,0,0,0,0,0,0,0,0,0,0,0,0,0,0,0,0,0,0,0,0,0,0,0,0,0,0,0,0,0,0,0,0,0],"sum_hessian":[2.4402634E3,5.712899E2,1.8689735E3,2.0596724E2,1.6630062E3,8.5248856E1,1.2071838E2,1.036332E3,6.2667426E2,3.048694E1,5.476191E1,3.8049255E2,6.558394E2,2.5179868E2,3.748756E2,2.3581945E1,3.1179966E1,2.5279063E2,1.2770192E2,1.7272247E2,7.90762E1,1.1240133E2,2.6247427E2,6.4412084E0,1.7140738E1,3.9000553E1,8.870136E1,4.4545586E1,3.4530613E1,7.4624886E1,3.7776443E1,1.1694518E1,5.446219E0,9.87474E0,2.4655874E1,3.213434E1,4.2490547E1,6.1033173E0,3.1673126E1,1.2545383E1,2.9945162E1,2.0037926E1,9.907237E0],"tree_param":{"num_deleted":"0","num_feature":"3","num_nodes":"43","size_leaf_vector":"1"}},{"base_weights":[1.5253259E-1,4.1504484E-1,-2.7798375E-1,-3.7181142E-1,-4.1591223E-2,2.5291052E-1,-3.7173906E-1,4.1334122E-1,-3.6777206E-2,-5.008181E-1,2.439443E-1,6.2334605E-2,-3.6380666E-1,4.104981E-1,-3.5774058E-1],"categories":[],"categories_nodes":[],"categories_segments":[],"categories_sizes":[],"default_left":[0,0,0,0,0,0,0,0,0,0,0,0,0,0,0],"id":8,"left_children":[1,-1,3,-1,5,7,-1,-1,9,11,13,-1,-1,-1,-1],"loss_changes":[2.67184E2,0E0,4.2641003E1,0E0,5.3429863E1,2.266197E1,0E0,0E0,1.6475313E1,5.776205E-1,2.0698795E1,0E0,0E0,0E0,0E0],"parents":[2147483647,0,0,2,2,4,4,5,5,8,8,9,9,10,10],"right_children":[2,-1,4,-1,6,8,-1,-1,10,12,14,-1,-1,-1,-1],"split_conditions":[1E0,4.1504484E-1,5E0,-3.7181142E-1,2E0,-5.933784E-1,-3.7173906E-1,4.1334122E-1,7E0,-5.788986E-1,8E0,6.2334605E-2,-3.6380666E-1,4.104981E-1,-3.5774058E-1],"split_indices":[1,0,0,0,1,2,0,0,0,2,0,0,0,0,0],"split_type":[0,0,0,0,0,0,0,0,0,0,0,0,0,0,0],"sum_hessian":[1.4073698E3,6.9552167E2,7.1184814E2,3.4312048E2,3.6872763E2,2.3051457E2,1.3821304E2,1.0597829E2,1.24536285E2,4.664564E1,7.789064E1,1.3333857E0,4.5312256E1,5.3737637E1,2.4153008E1],"tree_param":{"num_deleted":"0","num_feature":"3","num_nodes":"15","size_leaf_vector":"1"}},{"base_weights":[-2.4973814E-1,-1.4135656E-1,-3.6628553E-1,-3.654902E-1,-1.2654809E-2,-3.6434782E-1,1.3664016E-1,2.4077034E-1,5.598755E-3,3.2014877E-1,3.7772793E-2,2.776633E-1,-3.621463E-1,1.0328416E-1,3.2718349E-1,-3.4996417E-1,3.1293103E-1,-4.4915953E-1,4.3039155E-1,3.3534285E-1,-2.5715765E-1,2.2680639E-1,3.326652E-1,-3.3323833E-1,4.032112E-1,7.881118E-2,-3.479419E-1,3.746096E-1,-5.5851217E-2,3.6347097E-1,-2.7541834E-1,2.6970607E-1,3.8177615E-1,3.7378484E-1,-3.4314927E-1,4.0629727E-1,-3.479103E-1,-3.4095615E-1,5.716243E-1,9.471366E-2,4.0919593E-1],"categories":[],"categories_nodes":[],"categories_segments":[],"categories_sizes":[],"default_left":[0,0,0,0,0,0,0,0,0,0,0,0,0,0,0,0,0,0,0,0,0,0,0,0,0,0,0,0,0,0,0,0,0,0,0,0,0,0,0,0,0],"id":9,"left_children":[1,3,-1,-1,5,-1,7,9,11,13,15,17,-1,19,21,-1,23,25,27,-1,-1,29,31,-1,-1,-1,-1,-1,33,-1,-1,35,37,-1,-1,-1,-1,-1,39,-1,-1],"loss_changes":[2.6194744E1,3.11615E1,0E0,0E0,3.618824E1,0E0,5.0328536E0,3.3000736E0,2.353111E1,1.9143486E-1,8.873558E0,1.2268385E1,0E0,1.2548124E0,2.978325E-3,0E0,8.491511E0,5.7738185E-1,4.634985E0,0E0,0E0,2.113123E0,3.0830193E-1,0E0,0E0,0E0,0E0,0E0,4.5992956E0,0E0,0E0,1.4986209E1,1.2207177E1,0E0,0E0,0E0,0E0,0E0,2.586193E-1,0E0,0E0],"parents":[2147483647,0,0,1,1,4,4,6,6,7,7,8,8,9,9,10,10,11,11,13,13,14,14,16,16,17,17,18,18,21,21,22,22,28,28,31,31,32,32,38,38],"right_children":[2,4,-1,-1,6,-1,8,10,12,14,16,18,-1,20,22,-1,24,26,28,-1,-1,30,32,-1,-1,-1,-1,-1,34,-1,-1,36,38,-1,-1,-1,-1,-1,40,-1,-1],"split_conditions":[5.679032E-1,3E0,-3.6628553E-1,-3.654902E-1,1E0,-3.6434782E-1,2E0,7E0,-5.933784E-1,-1.6533014E0,-5.933784E-1,5E0,-3.621463E-1,5E0,-1.5142951E0,-3.4996417E-1,8E0,-1.6967409E0,8E0,3.3534285E-1,-2.5715765E-1,5E0,5E0,-3.3323833E-1,4.032112E-1,7.881118E-2,-3.479419E-1,3.746096E-1,-1.4998152E0,3.6347097E-1,-2.7541834E-1,-5.933784E-1,-5.933784E-1,3.7378484E-1,-3.4314927E-1,4.0629727E-1,-3.479103E-1,-3.4095615E-1,-5.788986E-1,9.471366E-2,4.0919593E-1],"split_indices":[2,0,0,0,1,0,1,0,2,2,2,0,0,0,2,0,0,2,0,0,0,0,0,0,0,0,0,0,2,0,0,2,2,0,0,0,0,0,2,0,0],"split_type":[0,0,0,0,0,0,0,0,0,0,0,0,0,0,0,0,0,0,0,0,0,0,0,0,0,0,0,0,0,0,0,0,0,0,0,0,0,0,0,0,0],"sum_hessian":[8.85101E2,6.350051E2,2.5009595E2,1.5964078E2,4.7536432E2,1.0743315E2,3.6793118E2,2.045506E2,1.6338057E2,1.466347E2,5.7915894E1,1.07778145E2,5.5602425E1,5.0998454E0,1.4153487E2,1.9327879E1,3.8588013E1,1.8377941E1,8.94002E1,2.8258057E0,2.2740397E0,9.523437E0,1.3201143E2,9.447042E0,2.9140972E1,1.3378594E0,1.7040081E1,7.346991E1,1.5930288E1,6.5827117E0,2.9407248E0,6.0694393E1,7.131703E1,6.6588087E0,9.27148E0,4.3363876E1,1.7330517E1,1.2507902E1,5.880913E1,2.024029E0,5.6785103E1],"tree_param":{"num_deleted":"0","num_feature":"3","num_nodes":"41","size_leaf_vector":"1"}},{"base_weights":[-2.5847265E-1,-3.6606404E-1,-1.5953289E-1,1.8845764E-1,-2.5824592E-1,3.8019565E-1,-2.9972625E-1,-3.650071E-1,-1.5792854E-1,4.3576622E-1,2.7770266E-1,-3.5325566E-1,7.6497294E-2,-9.188126E-2,-3.6139095E-1,4.934181E-1,3.2168856E-1,3.8050961E-1,9.7263515E-2,-3.0468202E-1,3.457554E-1,-5.8318E-3,-1.9849643E-1,3.9912832E-1,3.8558242E-1,-3.0541882E-1,5.267806E-1,3.9696658E-1,-2.9620656E-1,-3.193105E-1,3.7710562E-1,-2.4238096E-1,3.76933E-1,-1.8903984E-1,1.3583234E-1,2.4423247E-2,-3.612678E-1,3.7419888E-1,2.2849612E-1,1.2960249E-1,3.9802188E-1,-3.543266E-1,1.6725538E-3,2.0068458E-1,-3.3008045E-1,-3.5371438E-1,2.83311E-1,-2.8245237E-1,3.5976928E-1,-3.436465E-1,2.2031063E-1,2.8203633E-1,2.819553E-2,-3.3401272E-1,4.5552564E-1,5.199526E-1,3.45022E-2,3.9755735E-1,1.3956231E-1,-3.3388793E-1,3.0552518E-1,4.011837E-1,2.7248213E-1,5.065538E-2,3.916205E-1,2.5525022E-1,-3.4020835E-1,4.1045243E-1,-3.119971E-1,-3.3838674E-1,3.8654855E-1,-2.1580605E-1,4.0067622E-1,-3.097901E-1,3.9137495E-1],"categories":[],"categories_nodes":[],"categories_segments":[],"categories_sizes":[],"default_left":[0,0,0,0,0,0,0,0,0,0,0,0,0,0,0,0,0,0,0,0,0,0,0,0,0,0,0,0,0,0,0,0,0,0,0,0,0,0,0,0,0,0,0,0,0,0,0,0,0,0,0,0,0,0,0,0,0,0,0,0,0,0,0,0,0,0,0,0,0,0,0,0,0,0,0],"id":10,"left_children":[1,-1,3,5,7,9,11,-1,13,15,17,-1,19,21,-1,23,25,27,29,-1,31,33,35,-1,37,-1,39,-1,-1,-1,-1,-1,-1,41,43,45,-1,-1,47,-1,-1,-1,49,51,-1,-1,53,-1,-1,-1,55,57,59,-1,61,63,65,67,69,-1,71,-1,73,-1,-1,-1,-1,-1,-1,-1,-1,-1,-1,-1,-1],"loss_changes":[2.2969292E1,0E0,2.212176E1,1.3459382E1,1.3145374E1,4.6454525E-1,3.1814916E0,0E0,8.571666E0,2.6815605E-1,6.846299E-1,0E0,2.2508957E0,2.8310306E0,0E0,1.2156582E-1,4.064035E0,3.9045587E0,4.0235753E0,0E0,1.5928138E0,4.4862213E0,9.772279E0,0E0,3.515427E-1,0E0,1.7854452E-1,0E0,0E0,0E0,0E0,0E0,0E0,4.5588884E0,3.9352164E0,1.1382227E1,0E0,0E0,2.2999036E0,0E0,0E0,0E0,5.283982E0,1.2380784E0,0E0,0E0,7.5107846E0,0E0,0E0,0E0,1.8736348E0,9.357972E-1,4.288398E0,0E0,8.322296E-1,1.8819547E-1,3.964948E0,5.4706287E0,7.5957355E0,0E0,3.4033647E0,0E0,4.3192377E0,0E0,0E0,0E0,0E0,0E0,0E0,0E0,0E0,0E0,0E0,0E0,0E0],"parents":[2147483647,0,0,2,2,3,3,4,4,5,5,6,6,8,8,9,9,10,10,12,12,13,13,15,15,16,16,17,17,18,18,20,20,21,21,22,22,24,24,26,26,33,33,34,34,35,35,38,38,42,42,43,43,46,46,50,50,51,51,52,52,54,54,55,55,56,56,57,57,58,58,60,60,62,62],"right_children":[2,-1,4,6,8,10,12,-1,14,16,18,-1,20,22,-1,24,26,28,30,-1,32,34,36,-1,38,-1,40,-1,-1,-1,-1,-1,-1,42,44,46,-1,-1,48,-1,-1,-1,50,52,-1,-1,54,-1,-1,-1,56,58,60,-1,62,64,66,68,70,-1,72,-1,74,-1,-1,-1,-1,-1,-1,-1,-1,-1,-1,-1,-1],"split_conditions":[1E0,-3.6606404E-1,-1.1725713E0,5E0,3E0,-1.4245201E0,8E0,-3.650071E-1,1.147096E0,3E0,2E0,-3.5325566E-1,-1.4245201E0,2.9422998E-4,-3.6139095E-1,2E0,2E0,3E0,3E0,-3.0468202E-1,2E0,-5.933784E-1,2E0,3.9912832E-1,1E0,-3.0541882E-1,-1.6967409E0,3.9696658E-1,-2.9620656E-1,-3.193105E-1,3.7710562E-1,-2.4238096E-1,3.76933E-1,6E0,8E0,5.679032E-1,-3.612678E-1,3.7419888E-1,2E0,1.2960249E-1,3.9802188E-1,-3.543266E-1,2E0,6E0,-3.3008045E-1,-3.5371438E-1,5E0,-2.8245237E-1,3.5976928E-1,-3.436465E-1,7E0,2E0,2E0,-3.3401272E-1,7E0,-1.117548E0,-8.7428695E-1,5E0,5E0,-3.3388793E-1,7E0,4.011837E-1,8E0,5.065538E-2,3.916205E-1,2.5525022E-1,-3.4020835E-1,4.1045243E-1,-3.119971E-1,-3.3838674E-1,3.8654855E-1,-2.1580605E-1,4.0067622E-1,-3.097901E-1,3.9137495E-1],"split_indices":[1,0,2,0,0,2,0,0,2,0,1,0,2,2,0,1,1,0,0,0,1,2,1,0,0,0,2,0,0,0,0,0,0,0,0,2,0,0,0,0,0,0,1,0,0,0,0,0,0,0,0,1,1,0,0,2,2,0,0,0,0,0,0,0,0,0,0,0,0,0,0,0,0,0,0],"split_type":[0,0,0,0,0,0,0,0,0,0,0,0,0,0,0,0,0,0,0,0,0,0,0,0,0,0,0,0,0,0,0,0,0,0,0,0,0,0,0,0,0,0,0,0,0,0,0,0,0,0,0,0,0,0,0,0,0,0,0,0,0,0,0,0,0,0,0,0,0,0,0,0,0,0,0],"sum_hessian":[8.799779E2,2.384068E2,6.415711E2,1.4157416E2,4.9999692E2,1.0180907E2,3.9765095E1,1.3682495E2,3.63172E2,6.390748E1,3.7901585E1,2.5522125E1,1.42429695E1,3.0771307E2,5.5458923E1,4.0243942E1,2.3663534E1,2.3438486E1,1.44631E1,4.697773E0,9.545197E0,1.7086337E2,1.368497E2,2.1004154E1,1.923979E1,4.7991023E0,1.8864431E1,1.926103E1,4.177456E0,6.4029465E0,8.060154E0,1.9056749E0,7.639522E0,7.436105E1,9.650232E1,8.095296E1,5.5896744E1,8.641131E0,1.0598658E1,2.64937E0,1.6215063E1,2.730336E1,4.705769E1,8.7797386E1,8.704932E0,2.6262815E1,5.4690136E1,3.1690218E0,7.429636E0,1.4083009E1,3.297468E1,5.922822E1,2.8569164E1,9.771229E0,4.4918907E1,1.1932898E1,2.1041784E1,3.1719217E1,2.7509005E1,9.87009E0,1.8699074E1,2.6051441E1,1.8867468E1,1.1974756E0,1.0735422E1,1.3058662E1,7.9831223E0,2.616554E1,5.5536757E0,1.0892807E1,1.66162E1,5.619221E0,1.3079853E1,5.243228E0,1.362424E1],"tree_param":{"num_deleted":"0","num_feature":"3","num_nodes":"75","size_leaf_vector":"1"}},{"base_weights":[1.6374655E-1,-3.7184203E-1,3.5133994E-1,-2.6236692E-1,4.2186356E-1,7.6887295E-2,-3.670743E-1,5.5525064E-1,1.9360954E-1,-3.509006E-1,3.6281127E-1,4.9065647E-1,4.1475478E-1,-1.8322703E-1,4.2242157E-1,6.3235305E-2,3.9938602E-1,4.1333482E-1,2.8296167E-1,-3.6833265E-1,4.6252578E-1,2.8974384E-2,4.1424388E-1,-2.9578063E-1,2.5069222E-1,-4.927027E-1,4.1115588E-1,4.0361375E-1,2.9223698E-1,-1.9064008E-1,3.8911557E-1,3.7752378E-1,-2.8647858E-1,-3.541866E-1,-1.1848875E-1,-3.166578E-1,3.94809E-1,-3.53118E-1,3.083913E-2,-3.391573E-1,4.120108E-1,-3.2669425E-1,2.2361946E-1,5.2537984E-1,-3.2839897E-1,9.3005374E-2,3.9396152E-1],"categories":[],"categories_nodes":[],"categories_segments":[],"categories_sizes":[],"default_left":[0,0,0,0,0,0,0,0,0,0,0,0,0,0,0,0,0,0,0,0,0,0,0,0,0,0,0,0,0,0,0,0,0,0,0,0,0,0,0,0,0,0,0,0,0,0,0],"id":11,"left_children":[1,-1,3,5,7,9,-1,11,13,-1,15,17,-1,19,21,23,-1,-1,25,-1,27,29,-1,-1,31,33,-1,-1,35,37,39,-1,-1,-1,-1,-1,-1,-1,41,-1,-1,-1,43,45,-1,-1,-1],"loss_changes":[1.8663039E2,0E0,4.8877228E1,1.0418617E1,3.0673462E1,8.736778E0,0E0,1.2435913E0,3.236251E1,0E0,2.1549344E0,4.788719E0,0E0,3.1726475E1,1.5526463E1,1.5211455E0,0E0,0E0,1.906353E1,0E0,7.9964733E-1,5.709262E0,0E0,0E0,2.4762697E0,1.2928963E-2,0E0,0E0,4.7115498E0,3.1383018E0,5.0456247E0,0E0,0E0,0E0,0E0,0E0,0E0,0E0,2.7211833E0,0E0,0E0,0E0,4.498382E0,1.402626E-1,0E0,0E0,0E0],"parents":[2147483647,0,0,2,2,3,3,4,4,5,5,7,7,8,8,10,10,11,11,13,13,14,14,15,15,18,18,20,20,21,21,24,24,25,25,28,28,29,29,30,30,38,38,42,42,43,43],"right_children":[2,-1,4,6,8,10,-1,12,14,-1,16,18,-1,20,22,24,-1,-1,26,-1,28,30,-1,-1,32,34,-1,-1,36,38,40,-1,-1,-1,-1,-1,-1,-1,42,-1,-1,-1,44,46,-1,-1,-1],"split_conditions":[1E0,-3.7184203E-1,-1.1725713E0,3E0,5E0,2E0,-3.670743E-1,2.9422998E-4,2E0,-3.509006E-1,-1.4534799E0,3E0,4.1475478E-1,1.147096E0,-1.4185592E-2,1E0,3.9938602E-1,4.1333482E-1,2E0,-3.6833265E-1,7E0,8E0,4.1424388E-1,-2.9578063E-1,2E0,-4.3145236E-2,4.1115588E-1,4.0361375E-1,8E0,-5.933784E-1,-8.7428695E-1,3.7752378E-1,-2.8647858E-1,-3.541866E-1,-1.1848875E-1,-3.166578E-1,3.94809E-1,-3.53118E-1,6E0,-3.391573E-1,4.120108E-1,-3.2669425E-1,7E0,-5.6731474E-1,-3.2839897E-1,9.3005374E-2,3.9396152E-1],"split_indices":[1,0,2,0,0,1,0,2,1,0,2,0,0,2,2,0,0,0,1,0,0,0,0,0,0,2,0,0,0,2,2,0,0,0,0,0,0,0,0,0,0,0,0,2,0,0,0],"split_type":[0,0,0,0,0,0,0,0,0,0,0,0,0,0,0,0,0,0,0,0,0,0,0,0,0,0,0,0,0,0,0,0,0,0,0,0,0,0,0,0,0,0,0,0,0,0,0],"sum_hessian":[1.4291353E3,3.033878E2,1.1257474E3,1.1575035E2,1.0099971E3,5.0749508E1,6.500085E1,6.3656726E2,3.7342978E2,1.6543425E1,3.420608E1,2.3803552E2,3.9853177E2,1.411558E2,2.3227399E2,1.4541137E1,1.9664946E1,1.5952293E2,7.851258E1,9.231305E1,4.8842754E1,7.024698E1,1.6202701E2,3.699668E0,1.0841469E1,2.195346E1,5.655912E1,2.7821201E1,2.1021553E1,4.3929424E1,2.6317556E1,7.6698494E0,3.1716194E0,2.054558E1,1.4078797E0,5.4433894E0,1.5578163E1,1.764729E1,2.6282133E1,4.6263814E0,2.1691174E1,6.942743E0,1.9339392E1,1.3639683E1,5.6997085E0,1.5832908E0,1.2056392E1],"tree_param":{"num_deleted":"0","num_feature":"3","num_nodes":"47","size_leaf_vector":"1"}},{"base_weights":[1.407119E-1,3.790002E-1,-2.6262605E-1,-3.5913458E-1,-3.915493E-2,2.3468772E-1,-3.5790208E-1,3.7504134E-1,-3.130928E-2,-4.613067E-1,2.2382684E-1,5.7503536E-2,-3.461133E-1,3.6965007E-1,-3.3510455E-1],"categories":[],"categories_nodes":[],"categories_segments":[],"categories_sizes":[],"default_left":[0,0,0,0,0,0,0,0,0,0,0,0,0,0,0],"id":12,"left_children":[1,-1,3,-1,5,7,-1,-1,9,11,13,-1,-1,-1,-1],"loss_changes":[1.22879616E2,0E0,2.1197226E1,0E0,2.6163174E1,1.0281874E1,0E0,0E0,7.6727314E0,5.092573E-1,9.652592E0,0E0,0E0,0E0,0E0],"parents":[2147483647,0,0,2,2,4,4,5,5,8,8,9,9,10,10],"right_children":[2,-1,4,-1,6,8,-1,-1,10,12,14,-1,-1,-1,-1],"split_conditions":[1E0,3.790002E-1,5E0,-3.5913458E-1,2E0,-5.933784E-1,-3.5790208E-1,3.7504134E-1,7E0,-5.788986E-1,8E0,5.7503536E-2,-3.461133E-1,3.6965007E-1,-3.3510455E-1],"split_indices":[1,0,0,0,1,2,0,0,0,2,0,0,0,0,0],"split_type":[0,0,0,0,0,0,0,0,0,0,0,0,0,0,0],"sum_hessian":[7.5839935E2,3.80264E2,3.781353E2,1.7770357E2,2.0043175E2,1.2717297E2,7.325877E1,5.9176304E1,6.799667E1,2.5020287E1,4.2976387E1,1.3530917E0,2.3667194E1,3.0162561E1,1.2813826E1],"tree_param":{"num_deleted":"0","num_feature":"3","num_nodes":"15","size_leaf_vector":"1"}},{"base_weights":[-2.329041E-1,-1.2919648E-1,-3.559246E-1,-3.5444155E-1,-9.66993E-3,-3.523055E-1,1.23156734E-1,2.198378E-1,6.4823497E-3,2.898673E-1,3.4115743E-2,2.3394074E-1,-3.4772354E-1,8.952118E-2,2.0760125E-1,-3.2704285E-1,2.8404847E-1,-3.8502336E-1,3.552906E-1,2.5931305E-1,-2.0442364E-1,-2.989083E-1,3.5930467E-1,7.8496255E-2,-3.236077E-1,4.45796E-1,-7.545032E-2,3.6735177E-1,3.5762665E-1,3.102258E-1,-3.1418365E-1,2.1899557E-1,3.6510682E-1,3.4869182E-1,-3.0035192E-1],"categories":[],"categories_nodes":[],"categories_segments":[],"categories_sizes":[],"default_left":[0,0,0,0,0,0,0,0,0,0,0,0,0,0,0,0,0,0,0,0,0,0,0,0,0,0,0,0,0,0,0,0,0,0,0],"id":13,"left_children":[1,3,-1,-1,5,-1,7,9,11,13,15,17,-1,19,-1,-1,21,23,25,-1,-1,-1,-1,-1,-1,27,29,-1,31,-1,-1,33,-1,-1,-1],"loss_changes":[1.3525267E1,1.5632076E1,0E0,0E0,1.7399017E1,0E0,2.357919E0,1.4773307E0,1.1082925E1,8.4833145E-2,4.197837E0,5.1440372E0,0E0,5.4952526E-1,0E0,0E0,3.8496988E0,4.9007952E-1,2.2267838E0,0E0,0E0,0E0,0E0,0E0,0E0,1.3711166E-1,2.2560973E0,0E0,4.580102E-1,0E0,0E0,2.9933157E0,0E0,0E0,0E0],"parents":[2147483647,0,0,1,1,4,4,6,6,7,7,8,8,9,9,10,10,11,11,13,13,16,16,17,17,18,18,25,25,26,26,28,28,31,31],"right_children":[2,4,-1,-1,6,-1,8,10,12,14,16,18,-1,20,-1,-1,22,24,26,-1,-1,-1,-1,-1,-1,28,30,-1,32,-1,-1,34,-1,-1,-1],"split_conditions":[5.679032E-1,3E0,-3.559246E-1,-3.5444155E-1,1E0,-3.523055E-1,2E0,7E0,-5.933784E-1,-1.6533014E0,8E0,5E0,-3.4772354E-1,5E0,2.0760125E-1,-3.2704285E-1,-5.933784E-1,-1.6967409E0,8E0,2.5931305E-1,-2.0442364E-1,-2.989083E-1,3.5930467E-1,7.8496255E-2,-3.236077E-1,-1.1522995E0,-1.4998152E0,3.6735177E-1,7E0,3.102258E-1,-3.1418365E-1,6E0,3.6510682E-1,3.4869182E-1,-3.0035192E-1],"split_indices":[2,0,0,0,1,0,1,0,2,2,0,0,0,0,0,0,2,2,0,0,0,0,0,0,0,2,2,0,0,0,0,0,0,0,0],"split_type":[0,0,0,0,0,0,0,0,0,0,0,0,0,0,0,0,0,0,0,0,0,0,0,0,0,0,0,0,0,0,0,0,0,0,0],"sum_hessian":[4.745803E2,3.4587726E2,1.2870303E2,8.245772E1,2.6341956E2,5.5261642E1,2.0815791E2,1.1334856E2,9.480935E1,8.190442E1,3.144414E1,6.566439E1,2.914496E1,3.1174316E0,7.878699E1,1.0171877E1,2.1272263E1,1.0407329E1,5.525706E1,1.812247E0,1.3051846E0,4.9758024E0,1.6296461E1,1.3393099E0,9.068019E0,4.5633743E1,9.623318E0,2.1457552E1,2.4176191E1,3.9499307E0,5.673387E0,1.4365344E1,9.810847E0,1.0202361E1,4.1629834E0],"tree_param":{"num_deleted":"0","num_feature":"3","num_nodes":"35","size_leaf_vector":"1"}},{"base_weights":[-2.3698914E-1,-3.5569295E-1,-1.4200221E-1,-8.316668E-4,-3.469077E-1,1.6655399E-1,-1.0522288E-1,-3.5371763E-1,-1.8806268E-1,3.3381245E-1,-2.817266E-1,-3.464041E-1,7.0592486E-3,1.7449873E-2,-3.4661385E-1,-4.561645E-2,3.4687525E-1,-3.3386835E-1,5.705187E-2,-1.3021506E-1,1.23108156E-1,1.6734222E-1,-3.2632354E-1,2.853554E-1,2.486621E-1,-2.6128396E-1,2.8718963E-1,-3.3531705E-1,3.5924528E-2,1.8106599E-1,-2.9589877E-1,-3.232887E-1,4.0772164E-1,3.4182027E-1,8.4478766E-2,-1.8962592E-1,3.1540936E-1,-3.1634307E-1,1.946884E-1,2.520161E-1,3.2932285E-2,3.562828E-1,2.371037E-1,3.522761E-1,-2.551678E-1,-2.8832006E-1,3.2409093E-1,4.635293E-1,2.6992433E-2,3.4900537E-1,1.24005385E-1,-3.022101E-1,2.655468E-1,-2.6667967E-1,3.3894467E-1,5.527514E-2,3.523937E-1,-3.2169375E-1,2.9303044E-1,3.5961917E-1,-2.7111718E-1,-3.0688322E-1,3.2989234E-1,-2.010751E-1,3.374747E-1,4.2826843E-1,-2.8191936E-1,1.2952358E-1,-2.615679E-1],"categories":[],"categories_nodes":[],"categories_segments":[],"categories_sizes":[],"default_left":[0,0,0,0,0,0,0,0,0,0,0,0,0,0,0,0,0,0,0,0,0,0,0,0,0,0,0,0,0,0,0,0,0,0,0,0,0,0,0,0,0,0,0,0,0,0,0,0,0,0,0,0,0,0,0,0,0,0,0,0,0,0,0,0,0,0,0,0,0],"id":14,"left_children":[1,-1,3,5,7,9,11,-1,13,15,17,-1,19,21,-1,-1,23,-1,25,27,29,31,-1,-1,33,-1,35,-1,37,39,-1,-1,41,43,45,-1,-1,-1,47,49,51,-1,53,-1,-1,-1,-1,55,57,59,61,-1,63,-1,-1,-1,-1,-1,65,-1,-1,-1,-1,67,-1,-1,-1,-1,-1],"loss_changes":[1.2217064E1,0E0,1.0261537E1,3.7052526E0,3.5460453E0,6.201148E0,5.716957E0,0E0,4.669274E0,3.3414745E-1,1.5269004E0,0E0,1.646775E0,3.3550925E0,0E0,0E0,2.4506664E-1,0E0,1.0165914E0,2.7629538E0,1.8476175E0,5.519021E0,0E0,0E0,3.496803E-1,0E0,7.191805E-1,0E0,2.6457677E0,5.309894E-1,0E0,0E0,3.2907438E-1,1.9465665E0,2.123578E0,0E0,0E0,0E0,1.142282E0,3.8560772E-1,2.0350776E0,0E0,1.9512246E0,0E0,0E0,0E0,0E0,1.1024642E-1,2.314021E0,2.516034E0,3.4178178E0,0E0,1.355976E0,0E0,0E0,0E0,0E0,0E0,2.7961047E0,0E0,0E0,0E0,0E0,3.793582E-1,0E0,0E0,0E0,0E0,0E0],"parents":[2147483647,0,0,2,2,3,3,4,4,5,5,6,6,8,8,9,9,10,10,12,12,13,13,16,16,18,18,19,19,20,20,21,21,24,24,26,26,28,28,29,29,32,32,33,33,34,34,38,38,39,39,40,40,42,42,47,47,48,48,49,49,50,50,52,52,58,58,63,63],"right_children":[2,-1,4,6,8,10,12,-1,14,16,18,-1,20,22,-1,-1,24,-1,26,28,30,32,-1,-1,34,-1,36,-1,38,40,-1,-1,42,44,46,-1,-1,-1,48,50,52,-1,54,-1,-1,-1,-1,56,58,60,62,-1,64,-1,-1,-1,-1,-1,66,-1,-1,-1,-1,68,-1,-1,-1,-1,-1],"split_conditions":[1E0,-3.5569295E-1,2.9422998E-4,-1.1725713E0,5E0,5E0,3E0,-3.5371763E-1,2E0,-1.7257005E0,8E0,-3.464041E-1,-5.933784E-1,1.147096E0,-3.4661385E-1,-4.561645E-2,-1.4534799E0,-3.3386835E-1,-1.4245201E0,6E0,8E0,5.679032E-1,-3.2632354E-1,2.853554E-1,2E0,-2.6128396E-1,2E0,-3.3531705E-1,2E0,6E0,-2.9589877E-1,-3.232887E-1,7E0,3E0,3E0,-1.8962592E-1,3.1540936E-1,-3.1634307E-1,7E0,2E0,2E0,3.562828E-1,8E0,3.522761E-1,-2.551678E-1,-2.8832006E-1,3.2409093E-1,-1.117548E0,8E0,5E0,5E0,-3.022101E-1,7E0,-2.6667967E-1,3.3894467E-1,5.527514E-2,3.523937E-1,-3.2169375E-1,-8.7428695E-1,3.5961917E-1,-2.7111718E-1,-3.0688322E-1,3.2989234E-1,-5.1229143E-1,3.374747E-1,4.2826843E-1,-2.8191936E-1,1.2952358E-1,-2.615679E-1],"split_indices":[1,0,2,2,0,0,0,0,1,2,0,0,2,2,0,0,2,0,2,0,0,2,0,0,1,0,1,0,1,0,0,0,0,0,0,0,0,0,0,1,1,0,0,0,0,0,0,2,0,0,0,0,0,0,0,0,0,0,2,0,0,0,0,2,0,0,0,0,0],"split_type":[0,0,0,0,0,0,0,0,0,0,0,0,0,0,0,0,0,0,0,0,0,0,0,0,0,0,0,0,0,0,0,0,0,0,0,0,0,0,0,0,0,0,0,0,0,0,0,0,0,0,0,0,0,0,0,0,0,0,0,0,0,0,0,0,0,0,0,0,0],"sum_hessian":[4.7615674E2,1.2240308E2,3.5375366E2,2.1004576E2,1.437079E2,8.045117E1,1.2959459E2,7.086193E1,7.284596E1,5.87764E1,2.1674774E1,2.8228624E1,1.0136596E2,4.4206184E1,2.8639778E1,1.7369181E0,5.7039482E1,1.3491911E1,8.182863E0,4.638044E1,5.498552E1,3.4246124E1,9.96006E0,3.3289146E1,2.3750334E1,2.6346498E0,5.5482135E0,1.4356265E1,3.2024174E1,5.0311478E1,4.674043E0,9.212219E0,2.5033905E1,1.4462386E1,9.287949E0,1.1075197E0,4.440694E0,7.4096427E0,2.4614532E1,3.354398E1,1.6767496E1,1.4465924E1,1.0567981E1,1.200601E1,2.4563768E0,3.9802215E0,5.307727E0,8.778008E0,1.5836523E1,1.8102196E1,1.5441786E1,5.3081574E0,1.1459338E1,2.8635871E0,7.7043934E0,1.1049747E0,7.6730337E0,5.3409915E0,1.0495531E1,1.5039647E1,3.0625482E0,5.794706E0,9.64708E0,3.65513E0,7.804208E0,7.2805014E0,3.2150302E0,1.10687E0,2.5482597E0],"tree_param":{"num_deleted":"0","num_feature":"3","num_nodes":"69","size_leaf_vector":"1"}},{"base_weights":[1.5095161E-1,-3.5881996E-1,3.191057E-1,-2.458777E-1,3.837121E-1,6.8159066E-2,-3.5115564E-1,5.064084E-1,1.737228E-1,-3.2434902E-1,3.1545278E-1,4.4579995E-1,3.7839535E-1,-1.7099084E-1,3.7301776E-1,4.2620514E-2,3.5211724E-1,3.7588677E-1,2.5479382E-1,-3.5357758E-1,4.145853E-1,9.796838E-3,3.7690938E-1,-2.4851605E-1,2.0549531E-1,-4.450182E-1,3.6994925E-1,3.5849753E-1,2.5616792E-1,-3.3264598E-1,1.406566E-1,3.175205E-1,-2.3874488E-1,-3.3002424E-1,-7.8674234E-2,-2.7149212E-1,3.4387082E-1,-1.000704E-1,3.590806E-1,-3.0794787E-1,5.0746992E-2,3.0551884E-1,-3.0653962E-1,-1.9220068E-1,3.436454E-1],"categories":[],"categories_nodes":[],"categories_segments":[],"categories_sizes":[],"default_left":[0,0,0,0,0,0,0,0,0,0,0,0,0,0,0,0,0,0,0,0,0,0,0,0,0,0,0,0,0,0,0,0,0,0,0,0,0,0,0,0,0,0,0,0,0],"id":15,"left_children":[1,-1,3,5,7,9,-1,11,13,-1,15,17,-1,19,21,23,-1,-1,25,-1,27,29,-1,-1,31,33,-1,-1,35,-1,37,-1,-1,-1,-1,-1,-1,39,-1,-1,41,43,-1,-1,-1],"loss_changes":[8.6638405E1,0E0,2.2686447E1,5.184656E0,1.4232491E1,4.045128E0,0E0,4.8419952E-1,1.4250884E1,0E0,1.0450292E0,2.1615124E0,0E0,1.5145396E1,7.876131E0,6.93588E-1,0E0,0E0,8.76724E0,0E0,3.058958E-1,2.7365656E0,0E0,0E0,1.1624556E0,6.194806E-2,0E0,0E0,2.1252768E0,0E0,3.089494E0,0E0,0E0,0E0,0E0,0E0,0E0,1.1204278E0,0E0,0E0,2.0928032E0,1.3105369E0,0E0,0E0,0E0],"parents":[2147483647,0,0,2,2,3,3,4,4,5,5,7,7,8,8,10,10,11,11,13,13,14,14,15,15,18,18,20,20,21,21,24,24,25,25,28,28,30,30,37,37,40,40,41,41],"right_children":[2,-1,4,6,8,10,-1,12,14,-1,16,18,-1,20,22,24,-1,-1,26,-1,28,30,-1,-1,32,34,-1,-1,36,-1,38,-1,-1,-1,-1,-1,-1,40,-1,-1,42,44,-1,-1,-1],"split_conditions":[1E0,-3.5881996E-1,-1.1725713E0,3E0,5E0,2E0,-3.5115564E-1,2.9422998E-4,2E0,-3.2434902E-1,-1.4534799E0,3E0,3.7839535E-1,1.147096E0,-1.4185592E-2,1E0,3.5211724E-1,3.7588677E-1,2E0,-3.5357758E-1,7E0,-8.7428695E-1,3.7690938E-1,-2.4851605E-1,2E0,-4.3145236E-2,3.6994925E-1,3.5849753E-1,8E0,-3.3264598E-1,8E0,3.175205E-1,-2.3874488E-1,-3.3002424E-1,-7.8674234E-2,-2.7149212E-1,3.4387082E-1,6E0,3.590806E-1,-3.0794787E-1,7E0,-5.788986E-1,-3.0653962E-1,-1.9220068E-1,3.436454E-1],"split_indices":[1,0,2,0,0,1,0,2,1,0,2,0,0,2,2,0,0,0,1,0,0,2,0,0,0,2,0,0,0,0,0,0,0,0,0,0,0,0,0,0,0,2,0,0,0],"split_type":[0,0,0,0,0,0,0,0,0,0,0,0,0,0,0,0,0,0,0,0,0,0,0,0,0,0,0,0,0,0,0,0,0,0,0,0,0,0,0,0,0,0,0,0,0],"sum_hessian":[7.7401056E2,1.5607516E2,6.179354E2,6.312255E1,5.5481287E2,2.866337E1,3.4459183E1,3.4930383E2,2.05509E2,8.824003E0,1.9839367E1,1.3096545E2,2.183384E2,7.533927E1,1.3016974E2,8.582676E0,1.125669E1,8.742148E1,4.3543972E1,4.805646E1,2.7282808E1,4.1064304E1,8.910543E1,2.1511405E0,6.4315352E0,1.2066449E1,3.1477522E1,1.5503094E1,1.1779716E1,8.166262E0,3.289804E1,4.5404987E0,1.8910364E0,1.0791121E1,1.275328E0,2.9762144E0,8.803501E0,2.0423866E1,1.24741745E1,5.68845E0,1.4735417E1,9.931986E0,4.8034315E0,2.2890463E0,7.642939E0],"tree_param":{"num_deleted":"0","num_feature":"3","num_nodes":"45","size_leaf_vector":"1"}},{"base_weights":[1.3354889E-1,3.6254913E-1,-2.4317281E-1,-3.518112E-1,-2.4742255E-2,2.2777742E-1,-3.4771734E-1,3.5680842E-1,-3.651873E-2,-4.1784054E-1,2.100631E-1,8.190814E-2,-3.3102778E-1,3.4488475E-1,-3.104676E-1],"categories":[],"categories_nodes":[],"categories_segments":[],"categories_sizes":[],"default_left":[0,0,0,0,0,0,0,0,0,0,0,0,0,0,0],"id":16,"left_children":[1,-1,3,-1,5,7,-1,-1,9,11,13,-1,-1,-1,-1],"loss_changes":[5.8316883E1,0E0,1.1526202E1,0E0,1.3414644E1,5.4874473E0,0E0,0E0,3.7373095E0,5.140283E-1,4.695615E0,0E0,0E0,0E0,0E0],"parents":[2147483647,0,0,2,2,4,4,5,5,8,8,9,9,10,10],"right_children":[2,-1,4,-1,6,8,-1,-1,10,12,14,-1,-1,-1,-1],"split_conditions":[1E0,3.6254913E-1,5E0,-3.518112E-1,2E0,-5.933784E-1,-3.4771734E-1,3.5680842E-1,7E0,-5.788986E-1,8E0,8.190814E-2,-3.3102778E-1,3.4488475E-1,-3.104676E-1],"split_indices":[1,0,0,0,1,2,0,0,0,2,0,0,0,0,0],"split_type":[0,0,0,0,0,0,0,0,0,0,0,0,0,0,0],"sum_hessian":[4.008608E2,1.9822852E2,2.026323E2,9.2031746E1,1.1060054E2,7.238941E1,3.821113E1,3.4575714E1,3.7813698E1,1.4576938E1,2.323676E1,1.2554439E0,1.3321493E1,1.6393805E1,6.842955E0],"tree_param":{"num_deleted":"0","num_feature":"3","num_nodes":"15","size_leaf_vector":"1"}},{"base_weights":[-2.1080674E-1,-1.12974286E-1,-3.489776E-1,-3.4621346E-1,-5.648563E-3,-3.4211963E-1,1.0492124E-1,1.7295411E-1,7.28098E-3,2.1353714E-1,3.1647682E-2,2.1462756E-1,-3.3358327E-1,2.1550365E-1,3.9024282E-2,-2.989039E-1,2.6223347E-1,-3.0496395E-1,3.2576853E-1,2.3374343E-1,1.517481E-1,-2.5777245E-1,3.285882E-1,9.784076E-2,-2.953367E-1,4.111196E-1,-6.728534E-2,3.4185755E-1,5.2886564E-2,-2.904432E-1,3.321833E-1,3.3956888E-1,3.1949025E-1,2.584175E-1,-2.752148E-1,4.799702E-1,-1.7468074E-1,-3.1554008E-1,3.305672E-1,1.8429762E-1,3.1938493E-1,3.5174665E-1,5.4876965E-2,-2.834774E-1,2.3812972E-1,3.11026E-1,-2.577785E-1],"categories":[],"categories_nodes":[],"categories_segments":[],"categories_sizes":[],"default_left":[0,0,0,0,0,0,0,0,0,0,0,0,0,0,0,0,0,0,0,0,0,0,0,0,0,0,0,0,0,0,0,0,0,0,0,0,0,0,0,0,0,0,0,0,0,0,0],"id":17,"left_children":[1,3,-1,-1,5,-1,7,9,11,13,15,17,-1,19,-1,-1,21,23,25,27,29,-1,-1,-1,-1,31,33,35,37,-1,-1,-1,39,-1,-1,41,43,-1,-1,45,-1,-1,-1,-1,-1,-1,-1],"loss_changes":[7.345787E0,8.08738E0,0E0,0E0,8.34033E0,0E0,8.430426E-1,4.2255926E-1,5.4430757E0,5.978346E-3,2.002685E0,2.291237E0,0E0,3.0725718E-2,0E0,0E0,1.807736E0,4.3368906E-1,1.0928459E0,8.1117535E-1,3.0345848E0,0E0,0E0,0E0,0E0,2.2801876E-2,1.073065E0,1.964381E0,3.814041E0,0E0,0E0,0E0,1.8671417E-1,0E0,0E0,1.5115643E-1,8.8407093E-1,0E0,0E0,1.462878E0,0E0,0E0,0E0,0E0,0E0,0E0,0E0],"parents":[2147483647,0,0,1,1,4,4,6,6,7,7,8,8,9,9,10,10,11,11,13,13,16,16,17,17,18,18,19,19,20,20,25,25,26,26,27,27,28,28,32,32,35,35,36,36,39,39],"right_children":[2,4,-1,-1,6,-1,8,10,12,14,16,18,-1,20,-1,-1,22,24,26,28,30,-1,-1,-1,-1,32,34,36,38,-1,-1,-1,40,-1,-1,42,44,-1,-1,46,-1,-1,-1,-1,-1,-1,-1],"split_conditions":[5.679032E-1,3E0,-3.489776E-1,-3.4621346E-1,1E0,-3.4211963E-1,2E0,7E0,-5.933784E-1,5.128799E-1,-5.933784E-1,5E0,-3.3358327E-1,6E0,3.9024282E-2,-2.989039E-1,8E0,-1.6967409E0,8E0,-4.9491566E-1,-5.788986E-1,-2.5777245E-1,3.285882E-1,9.784076E-2,-2.953367E-1,-1.1522995E0,-1.4998152E0,5E0,5E0,-2.904432E-1,3.321833E-1,3.3956888E-1,7E0,2.584175E-1,-2.752148E-1,-6.2523407E-1,-5.933784E-1,-3.1554008E-1,3.305672E-1,6E0,3.1938493E-1,3.5174665E-1,5.4876965E-2,-2.834774E-1,2.3812972E-1,3.11026E-1,-2.577785E-1],"split_indices":[2,0,0,0,1,0,1,0,2,2,2,0,0,0,0,0,0,2,0,2,2,0,0,0,0,2,2,0,0,0,0,0,0,0,0,2,2,0,0,0,0,0,0,0,0,0,0],"split_type":[0,0,0,0,0,0,0,0,0,0,0,0,0,0,0,0,0,0,0,0,0,0,0,0,0,0,0,0,0,0,0,0,0,0,0,0,0,0,0,0,0,0,0,0,0,0,0],"sum_hessian":[2.6195615E2,1.9652725E2,6.542892E1,4.2346863E1,1.5418039E2,2.8079071E1,1.2610131E2,7.3863815E1,5.2237495E1,5.6986275E1,1.6877544E1,3.6956177E1,1.5281317E1,5.5923523E1,1.0627501E0,5.361423E0,1.1516122E1,6.2047257E0,3.0751453E1,4.1410244E1,1.451328E1,2.6560018E0,8.86012E0,1.2512214E0,4.9535046E0,2.5227398E1,5.524055E0,2.5360077E1,1.6050167E1,5.1634994E0,9.34978E0,1.1582165E1,1.3645233E1,2.3046165E0,3.2194386E0,2.0065685E1,5.2943926E0,7.25805E0,8.792117E0,8.042841E0,5.602392E0,1.8761978E1,1.3037053E0,3.8056629E0,1.4887296E0,5.6023216E0,2.440519E0],"tree_param":{"num_deleted":"0","num_feature":"3","num_nodes":"47","size_leaf_vector":"1"}},{"base_weights":[-2.1843164E-1,-3.4862426E-1,-1.2881133E-1,-6.691505E-4,-3.3696476E-1,1.2844178E-1,-8.454523E-2,-3.4472644E-1,-1.8421307E-1,2.575108E-1,-2.621418E-1,-3.314383E-1,1.4875198E-2,3.4239206E-3,-3.3173567E-1,3.3037114E-1,1.2786824E-1,-3.101852E-1,3.762793E-2,-1.1554563E-1,1.1892314E-1,1.400324E-1,-2.9856798E-1,3.3949813E-1,1.0438025E-1,-2.9302633E-1,3.920626E-1,-2.1508369E-1,1.6568056E-1,-3.1470516E-1,3.958029E-2,1.6896981E-1,-2.5534156E-1,-2.9809332E-1,3.7353456E-1,2.635645E-1,-2.4546151E-1,1.1669456E-2,3.2668182E-1,-2.8242055E-1,1.734408E-1,2.3721722E-1,2.3747858E-2,3.235036E-1,2.0536695E-1,2.8416577E-1,1.0155653E-1,3.9215237E-1,2.4016634E-2,3.1415844E-1,1.08274855E-1,-2.6857343E-1,2.2293244E-1,-2.1874699E-1,2.965157E-1,-2.2701782E-1,2.70173E-1,5.711617E-2,3.0548117E-1,-2.7539092E-1,2.4325313E-1,3.2319757E-1,-2.3690568E-1,-2.688639E-1,2.8166085E-1,-1.1702235E-1,2.8214014E-1,3.412024E-1,-2.3339519E-1,1.0881659E-1,-2.1401514E-1],"categories":[],"categories_nodes":[],"categories_segments":[],"categories_sizes":[],"default_left":[0,0,0,0,0,0,0,0,0,0,0,0,0,0,0,0,0,0,0,0,0,0,0,0,0,0,0,0,0,0,0,0,0,0,0,0,0,0,0,0,0,0,0,0,0,0,0,0,0,0,0,0,0,0,0,0,0,0,0,0,0,0,0,0,0,0,0,0,0,0,0],"id":18,"left_children":[1,-1,3,5,7,9,11,-1,13,15,17,-1,19,21,-1,23,25,-1,27,29,31,33,-1,-1,35,-1,37,-1,-1,-1,39,41,-1,-1,43,45,-1,-1,-1,-1,47,49,51,-1,53,-1,55,57,59,61,63,-1,65,-1,-1,-1,-1,-1,-1,-1,67,-1,-1,-1,-1,69,-1,-1,-1,-1,-1],"loss_changes":[6.4736004E0,0E0,5.305728E0,1.355082E0,1.7096777E0,2.5518014E0,2.939981E0,0E0,2.1668873E0,3.1239152E-1,7.0759887E-1,0E0,8.4662414E-1,1.5379716E0,0E0,7.672229E-1,2.3499508E0,0E0,4.6514896E-1,1.4553981E0,9.0001017E-1,2.782254E0,0E0,0E0,8.734398E-1,0E0,2.9259026E-1,0E0,0E0,0E0,1.2480481E0,3.1220335E-1,0E0,0E0,1.2245202E-1,1.5620619E-1,0E0,0E0,0E0,0E0,5.119915E-1,1.8132043E-1,1.007744E0,0E0,9.046215E-1,0E0,7.7160704E-1,5.2486956E-2,1.0606458E0,1.4145784E0,1.5500754E0,0E0,5.532664E-1,0E0,0E0,0E0,0E0,0E0,0E0,0E0,1.2229868E0,0E0,0E0,0E0,0E0,2.345658E-1,0E0,0E0,0E0,0E0,0E0],"parents":[2147483647,0,0,2,2,3,3,4,4,5,5,6,6,8,8,9,9,10,10,12,12,13,13,15,15,16,16,18,18,19,19,20,20,21,21,24,24,26,26,30,30,31,31,34,34,35,35,40,40,41,41,42,42,44,44,46,46,47,47,48,48,49,49,50,50,52,52,60,60,65,65],"right_children":[2,-1,4,6,8,10,12,-1,14,16,18,-1,20,22,-1,24,26,-1,28,30,32,34,-1,-1,36,-1,38,-1,-1,-1,40,42,-1,-1,44,46,-1,-1,-1,-1,48,50,52,-1,54,-1,56,58,60,62,64,-1,66,-1,-1,-1,-1,-1,-1,-1,68,-1,-1,-1,-1,70,-1,-1,-1,-1,-1],"split_conditions":[1E0,-3.4862426E-1,2.9422998E-4,-1.1725713E0,5E0,5E0,3E0,-3.4472644E-1,2E0,3E0,8E0,-3.314383E-1,-5.933784E-1,1.147096E0,-3.3173567E-1,2E0,2E0,-3.101852E-1,-1.4245201E0,6E0,8E0,5.679032E-1,-2.9856798E-1,3.3949813E-1,-1.4534799E0,-2.9302633E-1,-1.6967409E0,-2.1508369E-1,1.6568056E-1,-3.1470516E-1,2E0,6E0,-2.5534156E-1,-2.9809332E-1,7E0,1E0,-2.4546151E-1,1.1669456E-2,3.2668182E-1,-2.8242055E-1,7E0,2E0,2E0,3.235036E-1,8E0,2.8416577E-1,2E0,-1.0914843E0,8E0,5E0,5E0,-2.6857343E-1,7E0,-2.1874699E-1,2.965157E-1,-2.2701782E-1,2.70173E-1,5.711617E-2,3.0548117E-1,-2.7539092E-1,-8.7428695E-1,3.2319757E-1,-2.3690568E-1,-2.688639E-1,2.8166085E-1,-5.1229143E-1,2.8214014E-1,3.412024E-1,-2.3339519E-1,1.0881659E-1,-2.1401514E-1],"split_indices":[1,0,2,2,0,0,0,0,1,0,0,0,2,2,0,1,1,0,2,0,0,2,0,0,2,0,2,0,0,0,1,0,0,0,0,0,0,0,0,0,0,1,1,0,0,0,0,2,0,0,0,0,0,0,0,0,0,0,0,0,2,0,0,0,0,2,0,0,0,0,0],"split_type":[0,0,0,0,0,0,0,0,0,0,0,0,0,0,0,0,0,0,0,0,0,0,0,0,0,0,0,0,0,0,0,0,0,0,0,0,0,0,0,0,0,0,0,0,0,0,0,0,0,0,0,0,0,0,0,0,0,0,0,0,0,0,0,0,0,0,0,0,0,0,0],"sum_hessian":[2.5990366E2,6.1979374E1,1.9792429E2,1.23128105E2,7.479617E1,4.8279644E1,7.4848465E1,3.59624E1,3.883378E1,3.654424E1,1.1735405E1,1.4471753E1,6.037671E1,2.4168133E1,1.4665646E1,2.240442E1,1.4139819E1,7.019385E0,4.7160196E0,2.6743753E1,3.3632957E1,1.8852428E1,5.315703E0,1.2622105E1,9.782315E0,4.4176283E0,9.722191E0,1.5269085E0,3.189111E0,7.879229E0,1.8864523E1,3.1069008E1,2.563948E0,5.2662387E0,1.358619E1,7.5588336E0,2.223482E0,1.8150884E0,7.9071026E0,3.9099016E0,1.4954622E1,2.070511E1,1.0363896E1,7.7528167E0,5.833373E0,3.2216349E0,4.3371987E0,5.4106503E0,9.543972E0,1.2067742E1,8.637369E0,3.0989275E0,7.2649693E0,1.6013409E0,4.2320323E0,1.6805017E0,2.656697E0,1.0294642E0,4.381186E0,3.012882E0,6.53109E0,1.0080935E1,1.9868082E0,3.1155117E0,5.5218573E0,2.6374888E0,4.6274805E0,4.69701E0,1.8340801E0,1.1513548E0,1.486134E0],"tree_param":{"num_deleted":"0","num_feature":"3","num_nodes":"71","size_leaf_vector":"1"}},{"base_weights":[1.4244583E-1,-3.5101804E-1,2.9665133E-1,-9.196413E-2,3.828456E-1,2.3926443E-1,-3.8002178E-1,4.8637745E-1,2.0990284E-1,-8.847215E-2,3.7246183E-1,-1.7696197E-1,-3.4038624E-1,4.1309533E-1,3.615853E-1,-1.3497443E-1,4.0144566E-1,-2.5083435E-1,5.757171E-2,1.6972727E-1,3.3763638E-1,-3.101573E-1,1.77387E-1,3.54324E-1,2.2604404E-1,-3.4027335E-1,3.8193858E-1,1.19538285E-1,3.581062E-1,-2.107607E-1,2.0682487E-1,-2.5493348E-1,3.0727994E-1,-2.1900696E-1,2.8785443E-1,-3.5265526E-1,3.3973435E-1,3.2666087E-1,2.2546057E-1,-9.581384E-2,3.2290477E-1,2.865251E-1,-1.9530691E-1,-2.9178545E-1,-2.0320911E-2,-2.2282137E-1,3.0399728E-1,-2.7102238E-1,3.489203E-2,2.4254104E-1,-2.6616183E-1,-1.5346725E-1,3.0342227E-1],"categories":[],"categories_nodes":[],"categories_segments":[],"categories_sizes":[],"default_left":[0,0,0,0,0,0,0,0,0,0,0,0,0,0,0,0,0,0,0,0,0,0,0,0,0,0,0,0,0,0,0,0,0,0,0,0,0,0,0,0,0,0,0,0,0,0,0,0,0,0,0,0,0],"id":19,"left_children":[1,-1,3,5,7,9,11,13,15,17,19,21,-1,23,-1,25,27,-1,29,31,-1,-1,33,-1,35,-1,37,39,-1,-1,41,-1,-1,-1,-1,43,-1,-1,45,47,-1,-1,-1,-1,-1,-1,-1,-1,49,51,-1,-1,-1],"loss_changes":[4.1103992E1,0E0,1.120299E1,5.9426246E0,4.787281E0,1.3050675E0,6.299701E-1,1.6263199E-1,6.9254074E0,3.8436282E-1,3.839631E-1,1.3018881E0,0E0,8.360529E-1,0E0,7.062898E0,2.022975E0,0E0,4.2895225E-1,1.4382862E0,0E0,0E0,8.4835404E-1,0E0,3.16407E0,0E0,1.0539651E-1,1.5281055E0,0E0,0E0,6.4838696E-1,0E0,0E0,0E0,0E0,1.281184E-1,0E0,0E0,9.915808E-1,5.160695E-1,0E0,0E0,0E0,0E0,0E0,0E0,0E0,0E0,9.565649E-1,7.381258E-1,0E0,0E0,0E0],"parents":[2147483647,0,0,2,2,3,3,4,4,5,5,6,6,7,7,8,8,9,9,10,10,11,11,13,13,15,15,16,16,18,18,19,19,22,22,24,24,26,26,27,27,30,30,35,35,38,38,39,39,48,48,49,49],"right_children":[2,-1,4,6,8,10,12,14,16,18,20,22,-1,24,-1,26,28,-1,30,32,-1,-1,34,-1,36,-1,38,40,-1,-1,42,-1,-1,-1,-1,44,-1,-1,46,48,-1,-1,-1,-1,-1,-1,-1,-1,50,52,-1,-1,-1],"split_conditions":[1E0,-3.5101804E-1,-8.7428695E-1,3E0,5E0,-1.4534799E0,5E0,2.9422998E-4,2E0,2E0,2E0,-1.1725713E0,-3.4038624E-1,3E0,3.615853E-1,1.147096E0,-1.4185592E-2,-2.5083435E-1,1E0,-1.1725713E0,3.3763638E-1,-3.101573E-1,2E0,3.54324E-1,2E0,-3.4027335E-1,7E0,8E0,3.581062E-1,-2.107607E-1,2E0,-2.5493348E-1,3.0727994E-1,-2.1900696E-1,2.8785443E-1,-4.3145236E-2,3.3973435E-1,3.2666087E-1,8E0,6E0,3.2290477E-1,2.865251E-1,-1.9530691E-1,-2.9178545E-1,-2.0320911E-2,-2.2282137E-1,3.0399728E-1,-2.7102238E-1,7E0,-5.788986E-1,-2.6616183E-1,-1.5346725E-1,3.0342227E-1],"split_indices":[1,0,2,0,0,2,0,2,1,1,1,2,0,0,0,2,2,0,0,2,0,0,1,0,1,0,0,0,0,0,0,0,0,0,0,2,0,0,0,0,0,0,0,0,0,0,0,0,0,2,0,0,0],"split_type":[0,0,0,0,0,0,0,0,0,0,0,0,0,0,0,0,0,0,0,0,0,0,0,0,0,0,0,0,0,0,0,0,0,0,0,0,0,0,0,0,0,0,0,0,0,0,0,0,0,0,0,0,0],"sum_hessian":[4.1146872E2,7.906658E1,3.3240213E2,6.0330254E1,2.7207187E2,2.8141083E1,3.218917E1,1.6905505E2,1.0301682E2,8.229039E0,1.9912043E1,1.1972431E1,2.0216742E1,5.3590004E1,1.1546505E2,3.6890305E1,6.612652E1,2.379164E0,5.8498755E0,7.8930717E0,1.2018971E1,6.6944304E0,5.2780004E0,3.4644077E1,1.8945927E1,2.2003378E1,1.4886926E1,1.916247E1,4.696405E1,1.4200873E0,4.429788E0,2.5277793E0,5.3652925E0,1.5953046E0,3.6826959E0,5.750831E0,1.3195096E1,8.371948E0,6.514978E0,1.2196587E1,6.9658833E0,3.2377687E0,1.1920192E0,4.5587273E0,1.1921036E0,1.6622031E0,4.852775E0,3.1693943E0,9.027192E0,6.294402E0,2.7327895E0,1.7977705E0,4.4966316E0],"tree_param":{"num_deleted":"0","num_feature":"3","num_nodes":"53","size_leaf_vector":"1"}}]},"name":"gbtree"},"learner_model_param":{"base_score":"[4.00625E-1,9.925E-2,9.025E-2,4.09875E-1]","boost_from_average":"1","num_class":"4","num_feature":"3","num_target":"1"},"objective":{"name":"multi:softprob","softmax_multiclass_param":{"num_class":"4"}}},"version":[3,1,2]}